<?xml version="1.0" encoding="utf-8"?>
<Root>
  <ActivationFunctions>
    <Fn id="0" name="LogisticFunctionSteep" prob="0.8" />
    <Fn id="1" name="RbfGaussian" prob="0.2" />
  </ActivationFunctions>
  <Networks>
    <Network id="280663" birthGen="334" fitness="1613.3324931545083">
      <Nodes>
        <Node type="bias" id="0" fnId="0" />
        <Node type="in" id="1" fnId="0" />
        <Node type="in" id="2" fnId="0" />
        <Node type="in" id="3" fnId="0" />
        <Node type="in" id="4" fnId="0" />
        <Node type="in" id="5" fnId="0" />
        <Node type="in" id="6" fnId="0" />
        <Node type="in" id="7" fnId="0" />
        <Node type="in" id="8" fnId="0" />
        <Node type="in" id="9" fnId="0" />
        <Node type="in" id="10" fnId="0" />
        <Node type="in" id="11" fnId="0" />
        <Node type="out" id="12" fnId="1" aux="0.3693219984393396,0.54710297315244094" />
        <Node type="hid" id="48" fnId="0" />
        <Node type="hid" id="73" fnId="1" aux="0.9614746636821907,0.1978158138307369" />
        <Node type="hid" id="76" fnId="0" />
        <Node type="hid" id="256" fnId="0" />
        <Node type="hid" id="306" fnId="0" />
      </Nodes>
      <Connections>
        <Con id="28" src="6" tgt="12" wght="0.049153354058204222" />
        <Con id="36" src="11" tgt="12" wght="0.044576975135467684" />
        <Con id="40" src="7" tgt="12" wght="0.048715805502238939" />
        <Con id="41" src="10" tgt="12" wght="0.047003603403365526" />
        <Con id="47" src="4" tgt="12" wght="0.041200673515518135" />
        <Con id="51" src="5" tgt="12" wght="0.04185314159375076" />
        <Con id="74" src="11" tgt="73" wght="-1.223278893971157" />
        <Con id="77" src="8" tgt="76" wght="-1.5792979708619177" />
        <Con id="78" src="76" tgt="48" wght="5" />
        <Con id="159" src="9" tgt="48" wght="-2.3927185254720453" />
        <Con id="164" src="48" tgt="12" wght="-0.13708095685750174" />
        <Con id="308" src="306" tgt="256" wght="4.7444983591916827" />
        <Con id="334" src="0" tgt="76" wght="0.019365255446020652" />
        <Con id="405" src="1" tgt="76" wght="-0.18221640286378321" />
        <Con id="450" src="2" tgt="76" wght="-4.6843138733756993" />
        <Con id="996" src="7" tgt="76" wght="0.047350870553357939" />
        <Con id="1385" src="73" tgt="48" wght="0.010502011608332395" />
      </Connections>
    </Network>
  </Networks>
</Root>