<?xml version="1.0" encoding="utf-8"?>
<Root>
  <ActivationFunctions>
    <Fn id="0" name="LogisticFunctionSteep" prob="1" />
  </ActivationFunctions>
  <Networks>
    <Network id="26816" birthGen="222" fitness="235">
      <Nodes>
        <Node type="bias" id="0" />
        <Node type="in" id="1" />
        <Node type="in" id="2" />
        <Node type="in" id="3" />
        <Node type="in" id="4" />
        <Node type="in" id="5" />
        <Node type="in" id="6" />
        <Node type="out" id="7" />
        <Node type="hid" id="38" />
      </Nodes>
      <Connections>
        <Con id="19" src="2" tgt="7" wght="0.012321818759664893" />
        <Con id="21" src="1" tgt="7" wght="3.8891526690512093" />
        <Con id="25" src="3" tgt="7" wght="3.9788825673786796" />
        <Con id="36" src="7" tgt="7" wght="-0.96839528438033984" />
        <Con id="69" src="3" tgt="38" wght="0.047373914159615262" />
        <Con id="71" src="2" tgt="38" wght="-0.031169233969833076" />
      </Connections>
    </Network>
  </Networks>
</Root>