<?xml version="1.0" encoding="utf-8"?>
<Root>
  <ActivationFunctions>
    <Fn id="0" name="LogisticFunctionSteep" prob="1" />
  </ActivationFunctions>
  <Networks>
    <Network id="45452" birthGen="378" fitness="262">
      <Nodes>
        <Node type="bias" id="0" />
        <Node type="in" id="1" />
        <Node type="in" id="2" />
        <Node type="in" id="3" />
        <Node type="in" id="4" />
        <Node type="in" id="5" />
        <Node type="in" id="6" />
        <Node type="out" id="7" />
        <Node type="hid" id="103" />
      </Nodes>
      <Connections>
        <Con id="19" src="2" tgt="7" wght="0.012321818759664893" />
        <Con id="20" src="5" tgt="7" wght="-0.598661393975179" />
        <Con id="21" src="1" tgt="7" wght="3.8892289393338184" />
        <Con id="25" src="3" tgt="7" wght="3.9788701561850859" />
        <Con id="36" src="7" tgt="7" wght="-0.96839528438033984" />
        <Con id="139" src="6" tgt="103" wght="3.3532210587817821" />
      </Connections>
    </Network>
  </Networks>
</Root>