<?xml version="1.0" encoding="utf-8"?>
<Root>
  <ActivationFunctions>
    <Fn id="0" name="LogisticFunctionSteep" prob="0.8" />
    <Fn id="1" name="RbfGaussian" prob="0.2" />
  </ActivationFunctions>
  <Networks>
    <Network id="95090" birthGen="113" fitness="1566.5194404620763">
      <Nodes>
        <Node type="bias" id="0" fnId="0" />
        <Node type="in" id="1" fnId="0" />
        <Node type="in" id="2" fnId="0" />
        <Node type="in" id="3" fnId="0" />
        <Node type="in" id="4" fnId="0" />
        <Node type="in" id="5" fnId="0" />
        <Node type="in" id="6" fnId="0" />
        <Node type="in" id="7" fnId="0" />
        <Node type="in" id="8" fnId="0" />
        <Node type="in" id="9" fnId="0" />
        <Node type="in" id="10" fnId="0" />
        <Node type="in" id="11" fnId="0" />
        <Node type="out" id="12" fnId="1" aux="0.29385404287270461,0.49841314243516455" />
        <Node type="hid" id="48" fnId="0" />
        <Node type="hid" id="76" fnId="0" />
        <Node type="hid" id="88" fnId="0" />
        <Node type="hid" id="94" fnId="0" />
        <Node type="hid" id="190" fnId="0" />
        <Node type="hid" id="256" fnId="0" />
        <Node type="hid" id="306" fnId="0" />
      </Nodes>
      <Connections>
        <Con id="41" src="10" tgt="12" wght="0.04679964650597869" />
        <Con id="51" src="5" tgt="12" wght="0.046761683289685566" />
        <Con id="77" src="8" tgt="76" wght="-1.5547443444673268" />
        <Con id="78" src="76" tgt="48" wght="4.9780392477200808" />
        <Con id="95" src="88" tgt="94" wght="-2.5558885537732774" />
        <Con id="96" src="94" tgt="12" wght="4.9580197127358749" />
        <Con id="159" src="9" tgt="48" wght="-2.65833300217657" />
        <Con id="164" src="48" tgt="12" wght="-0.11582954781587064" />
        <Con id="192" src="190" tgt="88" wght="4.9856924563017984" />
        <Con id="258" src="256" tgt="190" wght="2.2619040682911873" />
        <Con id="307" src="7" tgt="306" wght="1.4159278477301254" />
        <Con id="308" src="306" tgt="256" wght="4.9767959904627119" />
      </Connections>
    </Network>
  </Networks>
</Root>