<?xml version="1.0" encoding="utf-8"?>
<Root>
  <ActivationFunctions>
    <Fn id="0" name="Linear" prob="0.25" />
    <Fn id="1" name="BipolarSigmoid" prob="0.25" />
    <Fn id="2" name="Gaussian" prob="0.25" />
    <Fn id="3" name="Sine" prob="0.25" />
  </ActivationFunctions>
  <Networks>
    <Network id="2182" birthGen="1" fitness="0.43713023387350014">
      <Nodes>
        <Node type="bias" id="0" />
        <Node type="in" id="1" />
        <Node type="in" id="2" />
        <Node type="in" id="3" />
        <Node type="in" id="4" />
        <Node type="in" id="5" />
        <Node type="in" id="6" />
        <Node type="out" id="7" />
        <Node type="out" id="8" />
      </Nodes>
      <Connections>
        <Con id="10" src="0" tgt="8" wght="-4.0477808122523129" />
        <Con id="12" src="1" tgt="8" wght="0.4037079494446516" />
        <Con id="15" src="3" tgt="7" wght="0.89466197416186333" />
        <Con id="16" src="3" tgt="8" wght="1.3268537749536335" />
        <Con id="18" src="4" tgt="8" wght="-0.41208003647625446" />
        <Con id="20" src="5" tgt="8" wght="2.3061162978410721" />
        <Con id="22" src="6" tgt="8" wght="-2.4865425121970475" />
      </Connections>
    </Network>
  </Networks>
</Root>