<?xml version="1.0" encoding="utf-8"?>
<Root>
  <ActivationFunctions>
    <Fn id="0" name="LogisticFunctionSteep" prob="1" />
  </ActivationFunctions>
  <Networks>
    <Network id="15191" birthGen="36" fitness="686">
      <Nodes>
        <Node type="bias" id="0" />
        <Node type="in" id="1" />
        <Node type="in" id="2" />
        <Node type="in" id="3" />
        <Node type="in" id="4" />
        <Node type="in" id="5" />
        <Node type="in" id="6" />
        <Node type="out" id="7" />
      </Nodes>
      <Connections>
        <Con id="14" src="6" tgt="7" wght="4.2450046370131362" />
        <Con id="18" src="0" tgt="7" wght="-0.049621729422973979" />
        <Con id="23" src="2" tgt="7" wght="-0.38418577518314123" />
        <Con id="24" src="3" tgt="7" wght="0.031538780246333095" />
        <Con id="28" src="4" tgt="7" wght="3.7908442017533828" />
        <Con id="30" src="5" tgt="7" wght="0.594642031981011" />
      </Connections>
    </Network>
  </Networks>
</Root>