<?xml version="1.0" encoding="utf-8"?>
<Root>
  <ActivationFunctions>
    <Fn id="0" name="LogisticFunctionSteep" prob="1" />
  </ActivationFunctions>
  <Networks>
    <Network id="381430" birthGen="3173" fitness="493">
      <Nodes>
        <Node type="bias" id="0" />
        <Node type="in" id="1" />
        <Node type="in" id="2" />
        <Node type="in" id="3" />
        <Node type="in" id="4" />
        <Node type="in" id="5" />
        <Node type="in" id="6" />
        <Node type="out" id="7" />
        <Node type="hid" id="666" />
        <Node type="hid" id="891" />
        <Node type="hid" id="1029" />
      </Nodes>
      <Connections>
        <Con id="19" src="2" tgt="7" wght="0.012321818759664893" />
        <Con id="21" src="1" tgt="7" wght="3.8892300019591244" />
        <Con id="25" src="3" tgt="7" wght="3.9788701561850859" />
        <Con id="36" src="7" tgt="7" wght="-0.96839528438033984" />
        <Con id="667" src="0" tgt="666" wght="-4.1737288537972317" />
        <Con id="675" src="666" tgt="666" wght="-2.2829555702988973" />
        <Con id="697" src="666" tgt="7" wght="-4.48053143641109" />
        <Con id="1031" src="1029" tgt="891" wght="3.9336056755293987" />
      </Connections>
    </Network>
  </Networks>
</Root>