<?xml version="1.0" encoding="utf-8"?>
<Root>
  <ActivationFunctions>
    <Fn id="0" name="LogisticFunctionSteep" prob="1" />
  </ActivationFunctions>
  <Networks>
    <Network id="18108" birthGen="43" fitness="974">
      <Nodes>
        <Node type="bias" id="0" />
        <Node type="in" id="1" />
        <Node type="in" id="2" />
        <Node type="in" id="3" />
        <Node type="in" id="4" />
        <Node type="in" id="5" />
        <Node type="in" id="6" />
        <Node type="out" id="7" />
      </Nodes>
      <Connections>
        <Con id="14" src="6" tgt="7" wght="4.23803511211395" />
        <Con id="18" src="0" tgt="7" wght="-0.069825657241937761" />
        <Con id="23" src="2" tgt="7" wght="-0.41717585960155912" />
        <Con id="24" src="3" tgt="7" wght="0.031538780246333095" />
        <Con id="28" src="4" tgt="7" wght="3.7728546770800691" />
        <Con id="29" src="1" tgt="7" wght="-0.016934037697501483" />
        <Con id="30" src="5" tgt="7" wght="0.6149367603442647" />
      </Connections>
    </Network>
  </Networks>
</Root>