<?xml version="1.0" encoding="utf-8"?>
<Root>
  <ActivationFunctions>
    <Fn id="0" name="LogisticFunctionSteep" prob="0.8" />
    <Fn id="1" name="RbfGaussian" prob="0.2" />
  </ActivationFunctions>
  <Networks>
    <Network id="308154" birthGen="366" fitness="1614.0054406933339">
      <Nodes>
        <Node type="bias" id="0" fnId="0" />
        <Node type="in" id="1" fnId="0" />
        <Node type="in" id="2" fnId="0" />
        <Node type="in" id="3" fnId="0" />
        <Node type="in" id="4" fnId="0" />
        <Node type="in" id="5" fnId="0" />
        <Node type="in" id="6" fnId="0" />
        <Node type="in" id="7" fnId="0" />
        <Node type="in" id="8" fnId="0" />
        <Node type="in" id="9" fnId="0" />
        <Node type="in" id="10" fnId="0" />
        <Node type="in" id="11" fnId="0" />
        <Node type="out" id="12" fnId="1" aux="0.3693219984393396,0.54710297315244094" />
        <Node type="hid" id="48" fnId="0" />
        <Node type="hid" id="73" fnId="1" aux="1.0477068005652,0.23891920614813625" />
        <Node type="hid" id="76" fnId="0" />
        <Node type="hid" id="256" fnId="0" />
        <Node type="hid" id="306" fnId="0" />
      </Nodes>
      <Connections>
        <Con id="28" src="6" tgt="12" wght="0.049153354058204222" />
        <Con id="36" src="11" tgt="12" wght="0.048534802079343464" />
        <Con id="40" src="7" tgt="12" wght="0.050446008152105468" />
        <Con id="41" src="10" tgt="12" wght="0.047003603403365526" />
        <Con id="47" src="4" tgt="12" wght="0.044464023796643395" />
        <Con id="51" src="5" tgt="12" wght="0.0453609073200209" />
        <Con id="74" src="11" tgt="73" wght="-1.2084754618225795" />
        <Con id="77" src="8" tgt="76" wght="-1.5792979708619177" />
        <Con id="78" src="76" tgt="48" wght="4.9991547492242834" />
        <Con id="159" src="9" tgt="48" wght="-2.3609133054216613" />
        <Con id="164" src="48" tgt="12" wght="-0.14628983572225682" />
        <Con id="308" src="306" tgt="256" wght="4.7568395263391112" />
        <Con id="334" src="0" tgt="76" wght="0.028241977363305464" />
        <Con id="405" src="1" tgt="76" wght="-0.18395615769742593" />
        <Con id="450" src="2" tgt="76" wght="-4.6996981363201806" />
        <Con id="996" src="7" tgt="76" wght="0.052987497620001787" />
      </Connections>
    </Network>
  </Networks>
</Root>